FANN_FLO_2.1
num_layers=3
learning_rate=0.700000
connection_rate=1.000000
network_type=0
learning_momentum=0.000000
training_algorithm=2
train_error_function=1
train_stop_function=1
cascade_output_change_fraction=0.010000
quickprop_decay=-0.000100
quickprop_mu=1.750000
rprop_increase_factor=1.200000
rprop_decrease_factor=0.500000
rprop_delta_min=0.000000
rprop_delta_max=50.000000
rprop_delta_zero=0.100000
cascade_output_stagnation_epochs=12
cascade_candidate_change_fraction=0.010000
cascade_candidate_stagnation_epochs=12
cascade_max_out_epochs=150
cascade_min_out_epochs=50
cascade_max_cand_epochs=150
cascade_min_cand_epochs=50
cascade_num_candidate_groups=2
bit_fail_limit=9.99999977648258209229e-03
cascade_candidate_limit=1.00000000000000000000e+03
cascade_weight_multiplier=4.00000005960464477539e-01
cascade_activation_functions_count=10
cascade_activation_functions=3 5 7 8 10 11 14 15 16 17 
cascade_activation_steepnesses_count=4
cascade_activation_steepnesses=2.50000000000000000000e-01 5.00000000000000000000e-01 7.50000000000000000000e-01 1.00000000000000000000e+00 
layer_sizes=9 6 3 
scale_included=0
neurons (num_inputs, activation_function, activation_steepness)=(0, 0, 0.00000000000000000000e+00) (0, 0, 0.00000000000000000000e+00) (0, 0, 0.00000000000000000000e+00) (0, 0, 0.00000000000000000000e+00) (0, 0, 0.00000000000000000000e+00) (0, 0, 0.00000000000000000000e+00) (0, 0, 0.00000000000000000000e+00) (0, 0, 0.00000000000000000000e+00) (0, 0, 0.00000000000000000000e+00) (9, 5, 1.00000000000000000000e+00) (9, 5, 1.00000000000000000000e+00) (9, 5, 1.00000000000000000000e+00) (9, 5, 1.00000000000000000000e+00) (9, 5, 1.00000000000000000000e+00) (0, 5, 1.00000000000000000000e+00) (6, 5, 1.00000000000000000000e+00) (6, 5, 1.00000000000000000000e+00) (0, 5, 1.00000000000000000000e+00) 
connections (connected_to_neuron, weight)=(0, 2.90119457244873046875e+00) (1, 5.81541895866394042969e-01) (2, -8.47155570983886718750e-01) (3, 4.53613340854644775391e-01) (4, -2.49857401847839355469e+00) (5, -8.11067640781402587891e-01) (6, 7.54937350749969482422e-01) (7, -2.08474111557006835938e+00) (8, 1.22562611103057861328e+00) (0, -9.15453195571899414062e-01) (1, 7.24145174026489257812e-02) (2, -6.98342978954315185547e-01) (3, 9.27463293075561523438e-01) (4, -8.18822622299194335938e-01) (5, -1.15175354480743408203e+00) (6, -7.24712431430816650391e-01) (7, 3.29977726936340332031e+00) (8, 1.06106579303741455078e+00) (0, 5.45939445495605468750e-01) (1, 3.27592819929122924805e-01) (2, -1.77753627300262451172e-01) (3, 1.44574731588363647461e-01) (4, 8.53737294673919677734e-01) (5, 8.19886803627014160156e-01) (6, -3.15657377243041992188e-01) (7, -1.65003085136413574219e+00) (8, 6.83829933404922485352e-03) (0, 1.49554809570312500000e+03) (1, 1.50000000000000000000e+03) (2, 1.50000000000000000000e+03) (3, 1.50000000000000000000e+03) (4, -1.50000000000000000000e+03) (5, -6.07385864257812500000e+01) (6, -9.20001220703125000000e+00) (7, -5.60466613769531250000e+02) (8, 1.41485241699218750000e+03) (0, 1.44264602661132812500e+00) (1, 1.59655523300170898438e+00) (2, 8.14712978899478912354e-03) (3, -4.41758930683135986328e-01) (4, -2.54182600975036621094e+00) (5, -7.81061276793479919434e-02) (6, 1.83426034450531005859e+00) (7, 3.68811100721359252930e-01) (8, -1.18891668319702148438e+00) (9, -9.54205751419067382812e-01) (10, 7.24307239055633544922e-01) (11, 1.85306239128112792969e+00) (12, 9.24635231494903564453e-01) (13, 1.08543646335601806641e+00) (14, -9.43884313106536865234e-01) (9, 1.46316194534301757812e+00) (10, -8.58975887298583984375e-01) (11, -2.45164775848388671875e+00) (12, 1.08808350563049316406e+00) (13, -1.58893346786499023438e+00) (14, 1.98199138045310974121e-01) 
