FANN_FIX_2.0
decimal_point=7
num_layers=4
learning_rate=0.700000
connection_rate=1.000000
network_type=0
learning_momentum=0.000000
training_algorithm=2
train_error_function=1
train_stop_function=1
cascade_output_change_fraction=0.010000
quickprop_decay=-0.000100
quickprop_mu=1.750000
rprop_increase_factor=1.200000
rprop_decrease_factor=0.500000
rprop_delta_min=0.000000
rprop_delta_max=50.000000
rprop_delta_zero=0.100000
cascade_output_stagnation_epochs=12
cascade_candidate_change_fraction=0.010000
cascade_candidate_stagnation_epochs=12
cascade_max_out_epochs=150
cascade_min_out_epochs=50
cascade_max_cand_epochs=150
cascade_min_cand_epochs=50
cascade_num_candidate_groups=2
bit_fail_limit=1
cascade_candidate_limit=128000
cascade_weight_multiplier=51
cascade_activation_functions_count=10
cascade_activation_functions=3 5 7 8 10 11 14 15 16 17 
cascade_activation_steepnesses_count=4
cascade_activation_steepnesses=32 64 96 128 
layer_sizes=6 51 51 4 
neurons (num_inputs, activation_function, activation_steepness)=(0, 0, 0) (0, 0, 0) (0, 0, 0) (0, 0, 0) (0, 0, 0) (0, 0, 0) (6, 6, 128) (6, 6, 128) (6, 6, 128) (6, 6, 128) (6, 6, 128) (6, 6, 128) (6, 6, 128) (6, 6, 128) (6, 6, 128) (6, 6, 128) (6, 6, 128) (6, 6, 128) (6, 6, 128) (6, 6, 128) (6, 6, 128) (6, 6, 128) (6, 6, 128) (6, 6, 128) (6, 6, 128) (6, 6, 128) (6, 6, 128) (6, 6, 128) (6, 6, 128) (6, 6, 128) (6, 6, 128) (6, 6, 128) (6, 6, 128) (6, 6, 128) (6, 6, 128) (6, 6, 128) (6, 6, 128) (6, 6, 128) (6, 6, 128) (6, 6, 128) (6, 6, 128) (6, 6, 128) (6, 6, 128) (6, 6, 128) (6, 6, 128) (6, 6, 128) (6, 6, 128) (6, 6, 128) (6, 6, 128) (6, 6, 128) (6, 6, 128) (6, 6, 128) (6, 6, 128) (6, 6, 128) (6, 6, 128) (6, 6, 128) (0, 6, 128) (51, 6, 128) (51, 6, 128) (51, 6, 128) (51, 6, 128) (51, 6, 128) (51, 6, 128) (51, 6, 128) (51, 6, 128) (51, 6, 128) (51, 6, 128) (51, 6, 128) (51, 6, 128) (51, 6, 128) (51, 6, 128) (51, 6, 128) (51, 6, 128) (51, 6, 128) (51, 6, 128) (51, 6, 128) (51, 6, 128) (51, 6, 128) (51, 6, 128) (51, 6, 128) (51, 6, 128) (51, 6, 128) (51, 6, 128) (51, 6, 128) (51, 6, 128) (51, 6, 128) (51, 6, 128) (51, 6, 128) (51, 6, 128) (51, 6, 128) (51, 6, 128) (51, 6, 128) (51, 6, 128) (51, 6, 128) (51, 6, 128) (51, 6, 128) (51, 6, 128) (51, 6, 128) (51, 6, 128) (51, 6, 128) (51, 6, 128) (51, 6, 128) (51, 6, 128) (51, 6, 128) (51, 6, 128) (51, 6, 128) (51, 6, 128) (0, 6, 128) (51, 6, 128) (51, 6, 128) (51, 6, 128) (0, 6, 128) 
connections (connected_to_neuron, weight)=(0, -22200) (1, 5473) (2, 4920) (3, -8561) (4, 5346) (5, -1051) (0, 16091) (1, -5139) (2, -2881) (3, -717) (4, 2282) (5, 5037) (0, -32283) (1, 47899) (2, 49050) (3, 190703) (4, 192000) (5, 188594) (0, -38849) (1, 4040) (2, 5664) (3, 83944) (4, -312) (5, -3052) (0, -190669) (1, 76789) (2, 75836) (3, 177434) (4, -191253) (5, 191523) (0, -4271) (1, 462) (2, 531) (3, 5932) (4, -3716) (5, -849) (0, 192000) (1, 31367) (2, 31340) (3, 184509) (4, 189462) (5, 180986) (0, -20006) (1, 8153) (2, 4853) (3, 17781) (4, 2270) (5, 5372) (0, 15152) (1, 459) (2, 1181) (3, 2484) (4, 13389) (5, -3882) (0, -924) (1, 759) (2, 990) (3, -5104) (4, 498) (5, -1438) (0, 20317) (1, 7949) (2, 8693) (3, 6489) (4, 6726) (5, -252) (0, 239) (1, 4492) (2, 4722) (3, 15942) (4, -762) (5, -6286) (0, 3306) (1, 181) (2, -501) (3, 11830) (4, -5606) (5, -437) (0, 6842) (1, -630) (2, -1298) (3, 13058) (4, 18783) (5, -3081) (0, 21447) (1, 658) (2, 1735) (3, -7397) (4, 6648) (5, 2342) (0, 16962) (1, -10659) (2, -9361) (3, 19932) (4, 10730) (5, 6154) (0, 3620) (1, 6380) (2, 10075) (3, 20705) (4, -1752) (5, 1601) (0, 191095) (1, 37795) (2, 115148) (3, 190854) (4, 135294) (5, 6044) (0, -12313) (1, 1197) (2, 2567) (3, 12706) (4, -905) (5, 1818) (0, -48567) (1, -8954) (2, -11308) (3, -20150) (4, 9774) (5, 1508) (0, 15769) (1, -14050) (2, -13937) (3, 30250) (4, 5842) (5, -1318) (0, 12287) (1, 20802) (2, 24522) (3, 24877) (4, -6886) (5, -212) (0, -59100) (1, 3230) (2, 2959) (3, 6680) (4, 3835) (5, 2940) (0, -14698) (1, 5110) (2, 6686) (3, -1988) (4, 9352) (5, 5395) (0, 5741) (1, 2043) (2, 1974) (3, -7177) (4, 490) (5, 2152) (0, 7608) (1, -1119) (2, -571) (3, -7740) (4, 5073) (5, 2540) (0, -2760) (1, -614) (2, -2325) (3, -3105) (4, -2054) (5, -2346) (0, -19747) (1, 808) (2, 1814) (3, -3071) (4, 10344) (5, 5136) (0, -908) (1, 17598) (2, 18497) (3, -4947) (4, 6632) (5, 2236) (0, -13449) (1, 2169) (2, 2226) (3, -14116) (4, 3971) (5, -157) (0, 42550) (1, 5964) (2, 7698) (3, -10540) (4, 7318) (5, -367) (0, -5142) (1, -2509) (2, -2066) (3, -5068) (4, -2822) (5, 1297) (0, -19325) (1, 2098) (2, 1841) (3, 1500) (4, -4101) (5, 165) (0, 1469) (1, 1310) (2, 4875) (3, -17325) (4, -3502) (5, 1526) (0, 16103) (1, 2019) (2, 1778) (3, -14351) (4, 14256) (5, 814) (0, 23453) (1, -2509) (2, 745) (3, -15696) (4, -98) (5, 399) (0, 191940) (1, 33336) (2, 32311) (3, 123189) (4, 4812) (5, -5483) (0, 19880) (1, 18628) (2, -16226) (3, -28098) (4, 136) (5, 1554) (0, -134512) (1, 188891) (2, 188585) (3, 55843) (4, 51506) (5, 183332) (0, 15442) (1, -1385) (2, -2832) (3, 15094) (4, 5167) (5, 3794) (0, 59806) (1, -5790) (2, -5460) (3, 34421) (4, 1295) (5, -4840) (0, 191995) (1, -46760) (2, -118898) (3, -47770) (4, -185786) (5, 190976) (0, 5138) (1, 5555) (2, 4539) (3, 7568) (4, -6800) (5, 893) (0, -902) (1, 109) (2, 186) (3, 7892) (4, 693) (5, -1540) (0, -9080) (1, 498) (2, 1710) (3, -34393) (4, 5801) (5, -3793) (0, -4591) (1, -2049) (2, -2123) (3, 14217) (4, -4114) (5, 686) (0, 21711) (1, -2883) (2, -2870) (3, -4650) (4, 834) (5, 49) (0, -5147) (1, -4821) (2, -7039) (3, -3845) (4, -2614) (5, -1995) (0, 174848) (1, 164022) (2, 164473) (3, 190910) (4, 191997) (5, 189666) (0, 4012) (1, 8868) (2, 6040) (3, -13223) (4, -24479) (5, 80) (6, -188651) (7, -72918) (8, -190514) (9, -189114) (10, 176377) (11, 13456) (12, -182049) (13, -192000) (14, -45547) (15, -88337) (16, -192000) (17, 168332) (18, -192000) (19, -186376) (20, 190154) (21, 152747) (22, 188585) (23, 74427) (24, 11698) (25, 183999) (26, -172729) (27, 192000) (28, 192000) (29, -8362) (30, -93725) (31, 191391) (32, -181034) (33, -109249) (34, -188935) (35, 83788) (36, 187377) (37, 98294) (38, -25207) (39, -49939) (40, 16474) (41, 192000) (42, 175471) (43, 163699) (44, 191761) (45, -111244) (46, 25613) (47, -65410) (48, -186703) (49, 192000) (50, 192000) (51, -147673) (52, -149751) (53, 183076) (54, 46498) (55, -36762) (56, 2351) (6, -192000) (7, 41075) (8, -185443) (9, -13958) (10, 191779) (11, 84081) (12, -190706) (13, -185193) (14, -154144) (15, -162265) (16, 149167) (17, 189238) (18, -192000) (19, -182544) (20, -117689) (21, -188851) (22, 115149) (23, -190509) (24, 186701) (25, -182759) (26, -168399) (27, 191999) (28, 190540) (29, -177976) (30, 191989) (31, -191661) (32, -53643) (33, -115446) (34, 161157) (35, 70069) (36, -153616) (37, -188694) (38, -183060) (39, -111567) (40, 174886) (41, 174054) (42, 27296) (43, -188045) (44, -159577) (45, -187521) (46, 16878) (47, -5472) (48, 181186) (49, 192000) (50, 190777) (51, -95825) (52, 143827) (53, 94614) (54, 83097) (55, 52170) (56, 18216) (6, -192000) (7, 192000) (8, -189445) (9, 113213) (10, 96913) (11, -191327) (12, 36901) (13, -186046) (14, 190365) (15, -192000) (16, 63823) (17, 191897) (18, -23097) (19, 71967) (20, -182961) (21, -185168) (22, -185797) (23, -115512) (24, 190302) (25, 80185) (26, -192000) (27, 144694) (28, 151086) (29, -189836) (30, 191719) (31, -188800) (32, 186961) (33, 180615) (34, -21449) (35, -139604) (36, -180338) (37, 173411) (38, -181873) (39, -110866) (40, 191958) (41, 192000) (42, 181410) (43, -191794) (44, 50534) (45, 192000) (46, 189813) (47, -66106) (48, 61366) (49, -186755) (50, -109593) (51, 18643) (52, 162627) (53, -77297) (54, -68057) (55, -185179) (56, 639) (6, -1730) (7, 4874) (8, 8612) (9, -14541) (10, -2455) (11, 9898) (12, 4910) (13, 2672) (14, 9630) (15, -9523) (16, -2571) (17, -10193) (18, -2845) (19, -1284) (20, 4606) (21, 918) (22, -838) (23, 5771) (24, 18466) (25, -3582) (26, 2079) (27, -7216) (28, 6453) (29, 302) (30, 1946) (31, 692) (32, -9657) (33, 3234) (34, -1300) (35, -12554) (36, -90) (37, -3071) (38, -5345) (39, 2142) (40, 761) (41, 9845) (42, 844) (43, -14079) (44, -5244) (45, -988) (46, -488) (47, -3878) (48, -2004) (49, 12776) (50, -7223) (51, -5299) (52, -28119) (53, 9882) (54, -594) (55, 1829) (56, 1091) (6, -192000) (7, 192000) (8, -100743) (9, -190160) (10, 187920) (11, -192000) (12, 146) (13, -180506) (14, 192000) (15, -192000) (16, 177519) (17, 191991) (18, -171243) (19, -166820) (20, -115339) (21, -166981) (22, -159892) (23, -170397) (24, 151493) (25, 180316) (26, -192000) (27, 69275) (28, 167796) (29, -19955) (30, 191979) (31, -192000) (32, -31677) (33, -136830) (34, -88847) (35, -184385) (36, -111852) (37, 183781) (38, -43225) (39, 14085) (40, 191969) (41, 192000) (42, 191412) (43, -70531) (44, -172770) (45, 110956) (46, -174692) (47, 157974) (48, 149410) (49, 98761) (50, -192000) (51, -16408) (52, -76404) (53, 191318) (54, -132382) (55, -186922) (56, -824) (6, -192000) (7, 190982) (8, 175689) (9, -190578) (10, -178804) (11, -192000) (12, -182837) (13, -183616) (14, 191951) (15, -192000) (16, 191993) (17, 191986) (18, -192000) (19, 115523) (20, -154060) (21, -187771) (22, -190786) (23, -191952) (24, 192000) (25, -180374) (26, -76644) (27, 186031) (28, 65599) (29, -189529) (30, 140678) (31, -192000) (32, -182277) (33, -180336) (34, 186630) (35, 80020) (36, 6777) (37, 44450) (38, -177395) (39, 61913) (40, 127920) (41, 192000) (42, -110755) (43, 122288) (44, -189852) (45, -146210) (46, -186946) (47, -7730) (48, -188298) (49, 191994) (50, 17218) (51, -75846) (52, 189881) (53, -21645) (54, 22871) (55, -191251) (56, -104471) (6, 2726) (7, 903) (8, 8130) (9, 294) (10, -3333) (11, -562) (12, 1459) (13, 18494) (14, 7795) (15, -8336) (16, 693) (17, 39) (18, -8716) (19, 7658) (20, 1495) (21, 11286) (22, 6950) (23, 6129) (24, -2129) (25, 324) (26, 26081) (27, -7000) (28, 85) (29, 8947) (30, -6545) (31, -1345) (32, 2572) (33, 2839) (34, 6879) (35, 3111) (36, 7093) (37, 26654) (38, 4401) (39, 10470) (40, 6704) (41, -1895) (42, 12546) (43, 8560) (44, -1930) (45, 8883) (46, -7515) (47, -2100) (48, -985) (49, -640) (50, 18610) (51, 3084) (52, 24764) (53, -70) (54, 1894) (55, -6752) (56, 368) (6, 192000) (7, 79836) (8, 27592) (9, 182557) (10, 33004) (11, 192000) (12, 191525) (13, 188260) (14, -191994) (15, 192000) (16, -178329) (17, 179316) (18, 192000) (19, 192000) (20, 191986) (21, -29419) (22, 191841) (23, 80945) (24, -190853) (25, -45864) (26, 111392) (27, -185176) (28, -138262) (29, -175783) (30, 52346) (31, 192000) (32, 182665) (33, 128514) (34, 191799) (35, 185675) (36, -127209) (37, 186880) (38, 147972) (39, 192000) (40, -180245) (41, -192000) (42, -189368) (43, 165879) (44, 191193) (45, -80841) (46, 186782) (47, -14043) (48, 191985) (49, -192000) (50, -24458) (51, 167005) (52, 183767) (53, -187205) (54, -65717) (55, 170977) (56, 2716) (6, -46408) (7, 103652) (8, -189459) (9, 191767) (10, 192000) (11, 94099) (12, -174298) (13, -175542) (14, 190778) (15, -191954) (16, 192000) (17, 191685) (18, 192000) (19, 131651) (20, -152632) (21, 19444) (22, -178184) (23, -162474) (24, 190963) (25, 182245) (26, -165462) (27, -192000) (28, -156308) (29, -189597) (30, 191194) (31, -185617) (32, 191956) (33, 97550) (34, 73784) (35, -190084) (36, -135297) (37, 157208) (38, -171106) (39, 192000) (40, -131350) (41, -179121) (42, 157774) (43, 151936) (44, -106118) (45, -178309) (46, 191504) (47, 2668) (48, 106562) (49, -192000) (50, -192000) (51, -60448) (52, 61404) (53, 122678) (54, 192000) (55, -184997) (56, -240) (6, 1444) (7, -1479) (8, -784) (9, -1643) (10, -727) (11, 611) (12, 2297) (13, -3732) (14, 1730) (15, 5288) (16, -1721) (17, 1033) (18, 1920) (19, -4303) (20, -6447) (21, -510) (22, -1361) (23, 1005) (24, 435) (25, 2176) (26, 1176) (27, 3049) (28, 358) (29, 210) (30, 10211) (31, 10528) (32, 1557) (33, 754) (34, -3859) (35, 570) (36, 5004) (37, 5639) (38, -1207) (39, 2511) (40, 4637) (41, 2394) (42, 6021) (43, -198) (44, -961) (45, -1018) (46, -1452) (47, 530) (48, -570) (49, 2076) (50, 9158) (51, 136) (52, -6021) (53, 1361) (54, -3705) (55, 3287) (56, 913) (6, -30926) (7, 187754) (8, -186645) (9, 191732) (10, 32684) (11, -192000) (12, -182052) (13, 191990) (14, -92499) (15, -192000) (16, 189451) (17, 6579) (18, -85494) (19, 191510) (20, 190560) (21, -72371) (22, -165596) (23, 62529) (24, 157421) (25, -183253) (26, -105831) (27, 179545) (28, 167940) (29, 90894) (30, 191441) (31, -192000) (32, 191969) (33, 87362) (34, -51210) (35, -187228) (36, -185310) (37, 189100) (38, -125850) (39, 189066) (40, -175223) (41, 40903) (42, 184906) (43, -190015) (44, 94439) (45, -92002) (46, -170148) (47, 113275) (48, -10455) (49, -176599) (50, -88737) (51, 129540) (52, -96171) (53, 185667) (54, 183282) (55, -189021) (56, -354) (6, 181733) (7, -21279) (8, 57299) (9, 9752) (10, -188700) (11, 20009) (12, 30712) (13, 191988) (14, -171009) (15, 122378) (16, -38689) (17, -184730) (18, -31071) (19, 191220) (20, 170041) (21, 94452) (22, 151712) (23, 93318) (24, -178439) (25, 191719) (26, 187432) (27, 37088) (28, 131319) (29, 191317) (30, -165301) (31, 187435) (32, 123634) (33, -166062) (34, 155098) (35, 191549) (36, 188078) (37, -132616) (38, 191497) (39, 66967) (40, -103311) (41, -85962) (42, -177015) (43, 174452) (44, 117143) (45, 114433) (46, 191898) (47, 39111) (48, 64200) (49, -24999) (50, -26699) (51, 183202) (52, 191517) (53, -87940) (54, -132628) (55, 188906) (56, -771) (6, 2095) (7, 8403) (8, -2479) (9, 4904) (10, 263) (11, -2226) (12, 299) (13, 8582) (14, -6199) (15, 11847) (16, -2239) (17, -1664) (18, 7027) (19, 5251) (20, 263) (21, -2027) (22, -2772) (23, 3699) (24, 6255) (25, 4414) (26, 12258) (27, 3988) (28, -4661) (29, 2761) (30, 7133) (31, 16124) (32, 3804) (33, 12521) (34, 1550) (35, 6170) (36, -1076) (37, -7920) (38, 861) (39, -3945) (40, 4125) (41, 2164) (42, -1266) (43, 321) (44, -18) (45, 4529) (46, 7700) (47, 1207) (48, -4806) (49, -1293) (50, -3899) (51, 8491) (52, 6572) (53, 909) (54, -635) (55, -2274) (56, 420) (6, -2586) (7, -3524) (8, -3601) (9, 2055) (10, -674) (11, 4226) (12, 2789) (13, 3099) (14, 2986) (15, 17638) (16, 331) (17, -4748) (18, 1858) (19, -4064) (20, 1014) (21, -3041) (22, -4662) (23, 7083) (24, 14055) (25, 7063) (26, 105) (27, 4087) (28, 2011) (29, 2721) (30, 14940) (31, 1891) (32, -389) (33, -3184) (34, 3612) (35, 5959) (36, -1895) (37, 850) (38, -1770) (39, -666) (40, 9207) (41, 2430) (42, 6083) (43, 1111) (44, 3026) (45, 3576) (46, 446) (47, 1146) (48, -6730) (49, 60) (50, -2857) (51, 3768) (52, -4328) (53, -1644) (54, -1957) (55, -4737) (56, 620) (6, -7038) (7, 2179) (8, 2625) (9, -3756) (10, 1113) (11, -375) (12, 1925) (13, -1751) (14, 1318) (15, -65) (16, 3278) (17, -176) (18, -1026) (19, -1357) (20, 3487) (21, 296) (22, -1738) (23, 2754) (24, 3223) (25, -209) (26, 4172) (27, 1103) (28, -1067) (29, 1995) (30, 4329) (31, 2566) (32, -3639) (33, 2805) (34, -1099) (35, -4510) (36, 3108) (37, -686) (38, 567) (39, -2204) (40, 1958) (41, 4376) (42, 1601) (43, -2792) (44, 1328) (45, 681) (46, 1433) (47, 534) (48, -3662) (49, 9607) (50, 323) (51, -3968) (52, -5177) (53, 540) (54, -3568) (55, 1389) (56, 433) (6, -187968) (7, 169229) (8, 192000) (9, -165611) (10, 191274) (11, -159779) (12, -183140) (13, -192000) (14, 191995) (15, 177782) (16, -170603) (17, -30664) (18, -192000) (19, -192000) (20, -174784) (21, 191986) (22, 191985) (23, -174160) (24, 183526) (25, 160247) (26, -181325) (27, 183254) (28, 185418) (29, 114905) (30, 191984) (31, -105903) (32, -172576) (33, -188597) (34, -175180) (35, -43030) (36, 186577) (37, -178700) (38, -184618) (39, -192000) (40, 190484) (41, 192000) (42, -181675) (43, -189813) (44, 56734) (45, -3073) (46, -118934) (47, -188533) (48, -141573) (49, 192000) (50, 187622) (51, -177580) (52, -173551) (53, 190291) (54, -191159) (55, -184401) (56, 1289) (6, 4756) (7, 10581) (8, 6187) (9, 6828) (10, -171) (11, 2762) (12, 1333) (13, 7612) (14, -2073) (15, 6159) (16, -809) (17, 4680) (18, 5511) (19, 1061) (20, 1535) (21, -9017) (22, 1712) (23, -441) (24, -6697) (25, 1741) (26, 2516) (27, 1156) (28, 1965) (29, -2864) (30, -5049) (31, 2720) (32, 3284) (33, 4563) (34, 7973) (35, 12695) (36, 1995) (37, 3755) (38, 7660) (39, 4436) (40, -5162) (41, 2928) (42, 2814) (43, 8798) (44, 603) (45, 1151) (46, 3961) (47, 1913) (48, 7510) (49, 3266) (50, 14793) (51, 9546) (52, 13176) (53, 3143) (54, 7335) (55, 10862) (56, 239) (6, 189775) (7, -169120) (8, 190549) (9, -63885) (10, -125210) (11, -96442) (12, -154850) (13, 187463) (14, -161998) (15, 191024) (16, -192000) (17, 99163) (18, -169501) (19, 188662) (20, 140196) (21, 97160) (22, 116448) (23, 145179) (24, 189663) (25, -145593) (26, -48329) (27, -180431) (28, 116302) (29, 192000) (30, -188284) (31, -119273) (32, 191994) (33, 46295) (34, 108090) (35, 192000) (36, 181457) (37, 137912) (38, -60018) (39, -48954) (40, -153750) (41, 189191) (42, -150693) (43, -185931) (44, 22035) (45, -151015) (46, -8070) (47, 168969) (48, -70944) (49, 192000) (50, 119312) (51, 178144) (52, 172271) (53, -141774) (54, 189873) (55, 188044) (56, 129) (6, 192000) (7, 185215) (8, 168757) (9, -153541) (10, 170415) (11, 192000) (12, 43766) (13, -8056) (14, 191560) (15, 192000) (16, -171327) (17, 92418) (18, 192000) (19, 192000) (20, -150858) (21, -191283) (22, -66936) (23, -12556) (24, -156184) (25, -182423) (26, 191877) (27, 191846) (28, -10114) (29, 192000) (30, -180866) (31, 192000) (32, 47954) (33, 45525) (34, 176911) (35, 188708) (36, -19599) (37, 64345) (38, -153656) (39, 55399) (40, 189068) (41, -145648) (42, -105772) (43, 146098) (44, 191945) (45, -40006) (46, -181264) (47, 186836) (48, 132144) (49, -55971) (50, -109010) (51, 68649) (52, 84097) (53, -157688) (54, -23401) (55, 184436) (56, 439) (6, -185317) (7, 42941) (8, 159294) (9, 40289) (10, 19895) (11, -126590) (12, 31201) (13, 181653) (14, 191643) (15, -157056) (16, 104508) (17, 191886) (18, -190455) (19, 67127) (20, -169257) (21, 161184) (22, -168873) (23, -146634) (24, 189858) (25, -177531) (26, -180249) (27, -22591) (28, 186786) (29, -148004) (30, -187169) (31, -175750) (32, 190868) (33, -28115) (34, 53486) (35, -164226) (36, -51586) (37, 109698) (38, -142720) (39, -187138) (40, -4862) (41, 172555) (42, 189883) (43, -186382) (44, 134788) (45, 152682) (46, -24020) (47, 91995) (48, 12807) (49, 192000) (50, 192000) (51, -136730) (52, 41912) (53, 146433) (54, 189471) (55, 72563) (56, 2455) (6, -181832) (7, 108698) (8, -9885) (9, 10777) (10, 188134) (11, -77536) (12, -183937) (13, -177188) (14, -183276) (15, -192000) (16, -38428) (17, -171109) (18, -192000) (19, -191396) (20, 191817) (21, 191324) (22, 157857) (23, 100079) (24, -186747) (25, -78613) (26, -183275) (27, 187678) (28, 182148) (29, 189648) (30, -134708) (31, -192000) (32, -168441) (33, -207) (34, 22023) (35, 182823) (36, 191969) (37, -120909) (38, 191929) (39, -189848) (40, 168193) (41, 192000) (42, -81603) (43, -7446) (44, 102301) (45, 188446) (46, -179383) (47, -26009) (48, -126827) (49, 192000) (50, 99245) (51, 69156) (52, -171981) (53, 191731) (54, 114561) (55, 117917) (56, -80) (6, 27706) (7, 8480) (8, 618) (9, 8772) (10, 983) (11, -3345) (12, 6488) (13, 10913) (14, 825) (15, -4023) (16, -860) (17, 4607) (18, 3669) (19, 16491) (20, 1155) (21, 4604) (22, 7670) (23, 10397) (24, -2299) (25, 2071) (26, 12275) (27, 5268) (28, -2384) (29, 8754) (30, -9590) (31, 3607) (32, 4001) (33, 14122) (34, 6938) (35, 13314) (36, 11432) (37, 16170) (38, 22130) (39, -4307) (40, -7779) (41, 6241) (42, -9152) (43, 9876) (44, -1484) (45, 4952) (46, 8054) (47, 796) (48, -144) (49, -1329) (50, 15307) (51, 7665) (52, 19752) (53, 4551) (54, 5879) (55, 8863) (56, 79) (6, 192000) (7, -190159) (8, -18532) (9, 178895) (10, -164105) (11, 192000) (12, 169656) (13, 191985) (14, -191114) (15, 192000) (16, -191772) (17, -187058) (18, 192000) (19, 6120) (20, 191891) (21, 185935) (22, 66357) (23, 191988) (24, -192000) (25, 20753) (26, 182688) (27, -54017) (28, 181987) (29, 17540) (30, -189151) (31, 192000) (32, 192000) (33, -188227) (34, 191972) (35, 176515) (36, 191975) (37, -105060) (38, 191190) (39, 102176) (40, -147185) (41, -62608) (42, -188434) (43, -152515) (44, 148382) (45, 191366) (46, 184168) (47, 191968) (48, 107128) (49, -184636) (50, -186887) (51, 7666) (52, 108135) (53, 183677) (54, -121536) (55, 190864) (56, -190051) (6, 112095) (7, 187940) (8, 176528) (9, -88654) (10, -63043) (11, 191611) (12, 86909) (13, 190457) (14, -186692) (15, 191244) (16, 36378) (17, -191758) (18, -189354) (19, 135017) (20, 178474) (21, 134137) (22, 191429) (23, 182438) (24, -47360) (25, 93543) (26, 192000) (27, 35107) (28, 192000) (29, 167826) (30, -192000) (31, 176643) (32, 168847) (33, 191340) (34, 147546) (35, 180012) (36, 184538) (37, -170457) (38, 189557) (39, 17341) (40, -145374) (41, 182650) (42, -189214) (43, 24492) (44, 158728) (45, 39794) (46, 113789) (47, 192000) (48, -136578) (49, 177615) (50, 141673) (51, -26696) (52, -35629) (53, -79616) (54, -186330) (55, 188286) (56, 10380) (6, 188191) (7, 154089) (8, -186496) (9, 182615) (10, 34129) (11, -109624) (12, -152828) (13, 191257) (14, 149501) (15, 192000) (16, 190126) (17, -9472) (18, 192000) (19, -64565) (20, 95341) (21, 13519) (22, -174754) (23, -191531) (24, -182013) (25, 188373) (26, -99571) (27, 122735) (28, 151438) (29, 20281) (30, 136850) (31, 192000) (32, 9706) (33, 163375) (34, -173487) (35, 17484) (36, 81334) (37, 54218) (38, -25362) (39, 51146) (40, 191488) (41, 77004) (42, -110163) (43, 192000) (44, 78273) (45, 187331) (46, 181602) (47, -157411) (48, 181361) (49, -189629) (50, -192000) (51, -158882) (52, 135717) (53, 12415) (54, -131342) (55, 189684) (56, 166) (6, 130697) (7, 183351) (8, -177359) (9, 184604) (10, 183759) (11, -191629) (12, -10525) (13, 161769) (14, -82642) (15, 171320) (16, 192000) (17, 191542) (18, -134064) (19, -191215) (20, 191750) (21, 36163) (22, -178570) (23, -175546) (24, 190131) (25, -140310) (26, -50455) (27, -146843) (28, 124564) (29, -191915) (30, 163538) (31, -188526) (32, 190802) (33, 191659) (34, -76467) (35, -19737) (36, -3570) (37, 139464) (38, 144415) (39, 154867) (40, 192000) (41, -78668) (42, 128511) (43, 191344) (44, -17710) (45, 160550) (46, 165086) (47, 148515) (48, 150813) (49, -192000) (50, -192000) (51, 192000) (52, 108296) (53, -155792) (54, 192000) (55, -182138) (56, 395) (6, 188344) (7, -170850) (8, 191135) (9, -161132) (10, 168462) (11, 192000) (12, 191943) (13, -53241) (14, 191977) (15, 39461) (16, -192000) (17, -165343) (18, -192000) (19, -159212) (20, 23422) (21, -118072) (22, -61609) (23, 181240) (24, -182694) (25, 20809) (26, -159458) (27, 192000) (28, 13821) (29, -10447) (30, 190581) (31, 189382) (32, 180128) (33, -167783) (34, -187249) (35, 162542) (36, 165104) (37, -175225) (38, 191270) (39, -57654) (40, 178983) (41, 179740) (42, -179922) (43, 71201) (44, 191982) (45, 188924) (46, 172191) (47, 160041) (48, 62913) (49, 192000) (50, 192000) (51, 183760) (52, -123616) (53, 191962) (54, -192000) (55, 192000) (56, 402) (6, 192000) (7, 182975) (8, -191261) (9, 187180) (10, -1389) (11, 2775) (12, 62317) (13, 191960) (14, -138965) (15, 185727) (16, -192000) (17, 187591) (18, -31695) (19, 122978) (20, 191879) (21, -124304) (22, 191115) (23, 167975) (24, -134283) (25, -4179) (26, 191888) (27, -151798) (28, 129214) (29, -181768) (30, -110651) (31, 192000) (32, 118699) (33, 191983) (34, 190002) (35, -33483) (36, 39207) (37, 4716) (38, 76232) (39, 191921) (40, 2862) (41, -145106) (42, -177202) (43, 139469) (44, 155756) (45, 172814) (46, 173771) (47, -8311) (48, 66823) (49, 40873) (50, -44310) (51, 191921) (52, 163925) (53, 122387) (54, 163139) (55, 55427) (56, 10270) (6, -192000) (7, 192000) (8, 190300) (9, -191446) (10, -66442) (11, -14337) (12, 98083) (13, -158554) (14, 192000) (15, -192000) (16, 160764) (17, 192000) (18, -181135) (19, 132521) (20, -180734) (21, -143956) (22, -129858) (23, -189246) (24, 192000) (25, 153071) (26, 98082) (27, 166759) (28, 179994) (29, -179389) (30, 111383) (31, -192000) (32, -97878) (33, -20809) (34, 192000) (35, -167181) (36, -174901) (37, 190622) (38, -186038) (39, 191864) (40, -161707) (41, 41238) (42, 191928) (43, 139862) (44, 475) (45, -92324) (46, -192000) (47, 185370) (48, -179999) (49, 191998) (50, -161390) (51, -182802) (52, -183033) (53, -24790) (54, 187766) (55, -191087) (56, 309) (6, -142509) (7, 183945) (8, 62186) (9, 24036) (10, 191925) (11, -56719) (12, 119116) (13, 187088) (14, 191903) (15, -181420) (16, 192000) (17, 190988) (18, 192000) (19, -171920) (20, -145896) (21, -53221) (22, -171319) (23, -161162) (24, 182285) (25, 152643) (26, 166495) (27, 130449) (28, 80806) (29, -149885) (30, -170814) (31, -174068) (32, -175318) (33, 184511) (34, 134316) (35, -191395) (36, -160632) (37, 125417) (38, -190594) (39, 192000) (40, -173466) (41, -190383) (42, 189874) (43, 66936) (44, 82468) (45, -191448) (46, -186899) (47, 67731) (48, 116438) (49, -192000) (50, -11536) (51, 131782) (52, 104788) (53, -185677) (54, 192000) (55, -192000) (56, 830) (6, -189542) (7, 167639) (8, -137473) (9, -191807) (10, -151392) (11, 187933) (12, -191082) (13, -192000) (14, 178308) (15, -192000) (16, 139390) (17, -148743) (18, -192000) (19, -192000) (20, -65172) (21, 72267) (22, -11212) (23, -149132) (24, 105583) (25, 185370) (26, -52608) (27, 191093) (28, 191965) (29, 191087) (30, 191999) (31, -179965) (32, -131023) (33, -156322) (34, -56884) (35, -176273) (36, -15065) (37, -191043) (38, -179360) (39, 190501) (40, 189391) (41, 191591) (42, 180535) (43, -182978) (44, -46014) (45, 191896) (46, -190316) (47, 190656) (48, 98091) (49, 192000) (50, 183719) (51, -170169) (52, -77292) (53, 153781) (54, -147860) (55, -75184) (56, 1058) (6, 3716) (7, -164917) (8, -178177) (9, -16819) (10, 187195) (11, 161490) (12, 163651) (13, -135283) (14, 112550) (15, -174322) (16, 192000) (17, 184372) (18, 192000) (19, -618) (20, -185191) (21, 190730) (22, -116572) (23, -45637) (24, 182807) (25, 89379) (26, -187999) (27, -103470) (28, -35122) (29, -169089) (30, 185846) (31, -188802) (32, 185960) (33, -192000) (34, 191964) (35, -162008) (36, -157879) (37, -98160) (38, -188997) (39, -141732) (40, -163215) (41, -192000) (42, 188383) (43, 156581) (44, -63564) (45, 177213) (46, 192000) (47, 163409) (48, 192000) (49, -189372) (50, 88181) (51, 49134) (52, 52491) (53, 60211) (54, 181019) (55, -176187) (56, 208) (6, -192000) (7, -168871) (8, -190888) (9, -114921) (10, 192000) (11, -14896) (12, 151956) (13, -186981) (14, -134558) (15, -192000) (16, 183106) (17, 59542) (18, -177833) (19, -187896) (20, -13190) (21, 113083) (22, -25491) (23, 40898) (24, 192000) (25, 40913) (26, -184618) (27, -164138) (28, 28561) (29, -171579) (30, 172860) (31, -191237) (32, -191989) (33, -168937) (34, 34804) (35, -150066) (36, -178117) (37, -115331) (38, -151358) (39, -80978) (40, 127457) (41, -170629) (42, 186292) (43, -190567) (44, 91261) (45, 57434) (46, 149336) (47, 189019) (48, 156155) (49, -107737) (50, 91116) (51, 2994) (52, -16687) (53, 181825) (54, -178201) (55, -139609) (56, 762) (6, 128392) (7, -160151) (8, -188119) (9, 177857) (10, 126313) (11, 191909) (12, -102028) (13, 192000) (14, 69846) (15, 74728) (16, -4937) (17, -185607) (18, 192000) (19, 12906) (20, -1653) (21, 192000) (22, 178730) (23, 183688) (24, 121431) (25, -97522) (26, 132520) (27, 173774) (28, 171582) (29, 187250) (30, -180979) (31, 191985) (32, -174099) (33, 126514) (34, -153716) (35, 4649) (36, 99203) (37, -139776) (38, 125100) (39, -155724) (40, -131212) (41, -189420) (42, -165603) (43, 191744) (44, 136627) (45, -54468) (46, 168297) (47, 111267) (48, -140908) (49, -192000) (50, 30599) (51, -96540) (52, -152824) (53, 192000) (54, 165420) (55, 108274) (56, 864) (6, 190649) (7, -185312) (8, 191560) (9, 157891) (10, -187501) (11, 44037) (12, 132919) (13, 191968) (14, 169080) (15, -123959) (16, -192000) (17, -173446) (18, -192000) (19, 100016) (20, 36175) (21, 163363) (22, 191993) (23, 181324) (24, -174654) (25, 148137) (26, 92399) (27, 158624) (28, 185187) (29, -41721) (30, -190111) (31, -125591) (32, 37143) (33, 183480) (34, 169956) (35, -92265) (36, 160591) (37, -185955) (38, 191742) (39, 184356) (40, 14577) (41, 170960) (42, 32635) (43, 161320) (44, 129020) (45, 3773) (46, 60920) (47, 116631) (48, -72827) (49, 192000) (50, -35191) (51, 172026) (52, 189437) (53, -121749) (54, -68379) (55, 192000) (56, 197) (6, -1878) (7, 84) (8, -514) (9, -6322) (10, -47) (11, 1020) (12, 32) (13, -1157) (14, 4738) (15, 2001) (16, 617) (17, -3020) (18, -4442) (19, 3515) (20, -617) (21, 2565) (22, 820) (23, 2148) (24, 3518) (25, 1427) (26, -1808) (27, 2079) (28, 2083) (29, 1588) (30, 1706) (31, 3585) (32, -222) (33, -945) (34, -893) (35, -246) (36, 899) (37, 1400) (38, -336) (39, 1881) (40, 675) (41, 2129) (42, -881) (43, -5695) (44, -510) (45, -1418) (46, 930) (47, 61) (48, -1068) (49, 6922) (50, 1369) (51, -1240) (52, -386) (53, -428) (54, -987) (55, -2002) (56, 61) (6, -10775) (7, 7127) (8, 4787) (9, -402) (10, 647) (11, 7600) (12, 3298) (13, -1250) (14, 11966) (15, -16035) (16, 2470) (17, -16320) (18, -48808) (19, 4724) (20, -1047) (21, 34606) (22, 2401) (23, -1287) (24, -6119) (25, -268) (26, 4161) (27, 3280) (28, 5987) (29, 490) (30, 4040) (31, 65417) (32, -6462) (33, -10977) (34, -1333) (35, 3487) (36, 12159) (37, 7356) (38, 11431) (39, 13581) (40, -786) (41, 430) (42, -5014) (43, -1495) (44, -2173) (45, -1749) (46, -27381) (47, 3720) (48, -5190) (49, 95560) (50, 3345) (51, -8710) (52, 78) (53, 551) (54, 2947) (55, -141) (56, 756) (6, -51939) (7, 15583) (8, 191202) (9, -77759) (10, 44836) (11, 186141) (12, -176924) (13, 123938) (14, 192000) (15, -36254) (16, -192000) (17, 181398) (18, -192000) (19, -63435) (20, 48325) (21, 183479) (22, 143399) (23, -167733) (24, 120451) (25, 108744) (26, -178432) (27, 114099) (28, 24892) (29, 191999) (30, -181019) (31, -36731) (32, -186745) (33, -98665) (34, 157065) (35, -182051) (36, 164277) (37, -186310) (38, 192000) (39, -127382) (40, 10823) (41, 192000) (42, -74904) (43, 52344) (44, 11924) (45, 185011) (46, -179130) (47, -41580) (48, -180405) (49, 192000) (50, 82216) (51, -36776) (52, -153399) (53, 38626) (54, 30562) (55, 191502) (56, 528) (6, 2011) (7, -965) (8, 2444) (9, 1872) (10, 544) (11, 3228) (12, 2060) (13, -2783) (14, 289) (15, 8293) (16, 2668) (17, -3852) (18, 2951) (19, 2120) (20, 2904) (21, 1313) (22, 771) (23, 2463) (24, 4286) (25, 5862) (26, -3079) (27, 135) (28, 1935) (29, 1986) (30, 1550) (31, 6717) (32, -1776) (33, -752) (34, 1886) (35, -3578) (36, -1324) (37, 2165) (38, 2152) (39, -1744) (40, 2193) (41, 2810) (42, 386) (43, -3359) (44, -545) (45, 1421) (46, -691) (47, -889) (48, 1939) (49, 3833) (50, -394) (51, 4212) (52, -568) (53, 1033) (54, 1520) (55, -2096) (56, 793) (6, 7229) (7, 1587) (8, 1334) (9, 6106) (10, -1208) (11, 1722) (12, 2480) (13, 10632) (14, 3213) (15, -2425) (16, 4537) (17, 5045) (18, 3370) (19, 8963) (20, 1188) (21, 10141) (22, 2790) (23, 11945) (24, -13743) (25, 458) (26, 9373) (27, -1132) (28, 1420) (29, 6056) (30, -4438) (31, 260) (32, 10097) (33, 4610) (34, 4524) (35, 10175) (36, 1513) (37, 6900) (38, -939) (39, -1508) (40, -5208) (41, 2834) (42, -497) (43, 9739) (44, 378) (45, 5320) (46, 5154) (47, -330) (48, 3900) (49, -1399) (50, 7298) (51, 7321) (52, 13175) (53, 59) (54, 8703) (55, 2517) (56, -263) (6, 192000) (7, 185708) (8, 191907) (9, 188818) (10, -186783) (11, -91535) (12, 191776) (13, 192000) (14, 187911) (15, 192000) (16, 192000) (17, 187855) (18, 192000) (19, 186809) (20, -101271) (21, -67324) (22, 162123) (23, -74444) (24, 187532) (25, 47275) (26, 184922) (27, -25702) (28, -135057) (29, -190071) (30, -189955) (31, 191998) (32, -12690) (33, 191081) (34, 93375) (35, -136003) (36, -183449) (37, 134419) (38, -179438) (39, 192000) (40, -44417) (41, -162890) (42, 158857) (43, 192000) (44, 12796) (45, -172960) (46, 191547) (47, 174023) (48, -92802) (49, -192000) (50, -187923) (51, 191790) (52, 174530) (53, -120819) (54, 191304) (55, -192000) (56, -217) (6, -175424) (7, 19389) (8, -166364) (9, -191833) (10, 23094) (11, -192000) (12, -174986) (13, -186538) (14, 190460) (15, -23011) (16, 115673) (17, 63740) (18, -192000) (19, -190553) (20, -120101) (21, -124889) (22, 26220) (23, -149829) (24, 190953) (25, 189473) (26, -139107) (27, 188239) (28, 185482) (29, 183411) (30, 191999) (31, -192000) (32, -132346) (33, -134631) (34, -156092) (35, -155501) (36, 109072) (37, -185412) (38, -190483) (39, -99199) (40, 60927) (41, 2459) (42, 151357) (43, -174176) (44, -177827) (45, -24412) (46, -166476) (47, -122579) (48, 16072) (49, 192000) (50, 158574) (51, 76728) (52, -187385) (53, -110782) (54, 186263) (55, -186523) (56, -58553) (6, -192000) (7, 192000) (8, -128092) (9, -5868) (10, -189166) (11, -192000) (12, -81769) (13, -190041) (14, 185019) (15, -192000) (16, 192000) (17, 192000) (18, 186870) (19, -77589) (20, -134412) (21, -187820) (22, -187877) (23, -37548) (24, 192000) (25, 70330) (26, -183148) (27, 162892) (28, 191986) (29, -180820) (30, 191902) (31, -192000) (32, -147954) (33, 140968) (34, -84959) (35, -192000) (36, -171986) (37, 190850) (38, -112956) (39, 127037) (40, 101832) (41, 132130) (42, 191713) (43, -95549) (44, -190709) (45, -187406) (46, -39968) (47, 58221) (48, 190032) (49, -191503) (50, -51097) (51, -150308) (52, -7946) (53, 189588) (54, 97512) (55, -186906) (56, 1676) (6, -191669) (7, -127759) (8, 192000) (9, 80146) (10, 52783) (11, -64001) (12, -163027) (13, -190226) (14, 191835) (15, -192000) (16, -144607) (17, 1969) (18, -192000) (19, -181052) (20, -191210) (21, 182154) (22, -118591) (23, 143998) (24, 191810) (25, 114540) (26, -186093) (27, 184951) (28, 175997) (29, -6225) (30, 192000) (31, -192000) (32, -164161) (33, -165062) (34, -92107) (35, -172848) (36, -164829) (37, -187533) (38, -190709) (39, -51742) (40, 190442) (41, 150966) (42, -176243) (43, -183107) (44, -33502) (45, -178738) (46, 191774) (47, -140556) (48, -135360) (49, 189888) (50, 147253) (51, -188164) (52, -175437) (53, 86453) (54, -183901) (55, 100409) (56, 10278) (6, 189314) (7, 192000) (8, 107184) (9, -4293) (10, 98116) (11, 189006) (12, 37777) (13, 189220) (14, 186604) (15, 114185) (16, -192000) (17, -157985) (18, -192000) (19, 93813) (20, -10333) (21, -182100) (22, 191942) (23, -156494) (24, 159605) (25, 188777) (26, 186407) (27, -111153) (28, 136208) (29, 191837) (30, -127718) (31, 153198) (32, -80821) (33, 43013) (34, 140084) (35, 191892) (36, 178985) (37, 189477) (38, 192000) (39, 170907) (40, 187069) (41, 192000) (42, -144303) (43, 171577) (44, 192000) (45, 185011) (46, 6537) (47, 179744) (48, 47569) (49, 192000) (50, -192000) (51, 186950) (52, -121001) (53, -186360) (54, 187809) (55, 191950) (56, 522) (6, -16354) (7, -5903) (8, 18058) (9, -1925) (10, 2561) (11, 2534) (12, -2220) (13, 1237) (14, 14107) (15, -31502) (16, -1937) (17, -5158) (18, -17775) (19, 18929) (20, 4469) (21, 15155) (22, 19958) (23, 1932) (24, 2742) (25, -4701) (26, 2380) (27, 4240) (28, 6543) (29, 5481) (30, -1362) (31, -523) (32, -2860) (33, -2502) (34, -7434) (35, -4100) (36, -609) (37, 2384) (38, 10675) (39, 11249) (40, 6515) (41, 1725) (42, 10018) (43, 2418) (44, -4237) (45, 9969) (46, -1526) (47, 2660) (48, -1741) (49, 14896) (50, 19245) (51, 1245) (52, 1183) (53, 14865) (54, 7405) (55, -1113) (56, 1059) (6, 192000) (7, -178547) (8, 190693) (9, -179776) (10, -91315) (11, 192000) (12, 167643) (13, 183595) (14, 176270) (15, 192000) (16, -192000) (17, -189553) (18, -173184) (19, -24638) (20, -112756) (21, -124098) (22, 180643) (23, -172950) (24, -192000) (25, -37295) (26, 181432) (27, 192000) (28, 48821) (29, 189691) (30, -122036) (31, 192000) (32, -189132) (33, -74090) (34, -44241) (35, 192000) (36, 191983) (37, -73118) (38, 189870) (39, 191524) (40, -179316) (41, 190894) (42, -177556) (43, 191540) (44, 191864) (45, 191389) (46, 139959) (47, 189181) (48, 77112) (49, 192000) (50, 192000) (51, -152461) (52, -192000) (53, 191817) (54, -187013) (55, 192000) (56, -2491) (6, -189299) (7, 191860) (8, 149019) (9, -168532) (10, -183101) (11, 23839) (12, 65315) (13, -192000) (14, 191988) (15, -190404) (16, 187618) (17, 192000) (18, -192000) (19, -184727) (20, -168311) (21, 34333) (22, 51081) (23, -167264) (24, 191684) (25, 183906) (26, -177226) (27, 146960) (28, 191286) (29, -185689) (30, 191975) (31, -192000) (32, -131675) (33, -188698) (34, -14254) (35, -190769) (36, 74987) (37, 39138) (38, -130204) (39, -27131) (40, -150732) (41, 192000) (42, 191835) (43, -191863) (44, -182914) (45, -159421) (46, -191490) (47, -45083) (48, 15249) (49, 192000) (50, 187176) (51, -132627) (52, -188853) (53, 190370) (54, 138033) (55, -72552) (56, 1592) (6, -192000) (7, 179702) (8, 191984) (9, 87272) (10, 114346) (11, -192000) (12, 191528) (13, 191586) (14, -69129) (15, -192000) (16, 192000) (17, 191791) (18, -162514) (19, 84187) (20, 177435) (21, 6455) (22, 120424) (23, 84822) (24, 176895) (25, -12075) (26, 130409) (27, -93928) (28, -130280) (29, 4043) (30, 181696) (31, -192000) (32, -185572) (33, -108853) (34, -28703) (35, 191980) (36, 187700) (37, 151205) (38, 41167) (39, 191346) (40, -146869) (41, 60585) (42, 185049) (43, 46550) (44, -19618) (45, 192000) (46, -192000) (47, -3504) (48, -104659) (49, -186439) (50, 116360) (51, -12993) (52, 147810) (53, 191780) (54, 191534) (55, -86021) (56, 500) (6, -192000) (7, 192000) (8, 192000) (9, 170118) (10, -155496) (11, -192000) (12, -117591) (13, -63368) (14, 189619) (15, -192000) (16, 192000) (17, 191915) (18, 133515) (19, 39598) (20, 12693) (21, 62443) (22, -102957) (23, 132526) (24, 192000) (25, 95592) (26, -145115) (27, -178433) (28, -80016) (29, -185057) (30, 117652) (31, -192000) (32, -187959) (33, -186344) (34, -43454) (35, -46834) (36, -187705) (37, 186312) (38, -83732) (39, 159850) (40, 72610) (41, 112322) (42, 187511) (43, -72023) (44, -58584) (45, 155544) (46, -192000) (47, 151086) (48, 47517) (49, -178192) (50, -83218) (51, 30390) (52, 82064) (53, 164198) (54, 191089) (55, -189822) (56, 129) (57, -5) (58, -4) (59, 1) (60, -7) (61, 1) (62, -2) (63, -16) (64, -1) (65, 4) (66, 9) (67, 3) (68, -5) (69, -10) (70, 6) (71, 3) (72, -4) (73, 6) (74, 0) (75, 3) (76, -3) (77, -6) (78, 11) (79, 2) (80, -1) (81, 1) (82, 5) (83, -5) (84, -1) (85, 4) (86, 14) (87, -2) (88, -1) (89, -3) (90, 1) (91, -2) (92, 3) (93, -47) (94, -4) (95, -6) (96, -7) (97, 5) (98, 2) (99, 3) (100, -1) (101, 1) (102, -58) (103, -5) (104, -3) (105, 3) (106, 3) (107, 118) (57, 1) (58, -2) (59, -2) (60, -6) (61, -1) (62, -1) (63, 18) (64, 0) (65, -4) (66, -14) (67, -4) (68, -1) (69, 15) (70, -10) (71, -29) (72, 1) (73, 12) (74, 4) (75, 4) (76, 1) (77, 0) (78, 5) (79, 5) (80, -2) (81, 2) (82, -1) (83, 2) (84, 5) (85, -4) (86, -4) (87, 0) (88, 1) (89, -1) (90, -3) (91, 5) (92, -21) (93, 17) (94, 3) (95, -9) (96, 18) (97, 1) (98, -6) (99, -3) (100, -1) (101, 3) (102, 12) (103, 10) (104, -1) (105, -4) (106, -11) (107, 9) (57, 0) (58, 8) (59, 3) (60, 13) (61, 6) (62, 4) (63, -13) (64, -33) (65, 0) (66, 5) (67, 4) (68, 6) (69, -6) (70, 4) (71, 33) (72, 12) (73, -29) (74, 1) (75, -10) (76, 0) (77, 15) (78, -32) (79, -8) (80, -1) (81, 0) (82, -4) (83, 6) (84, 1) (85, 3) (86, -8) (87, 4) (88, -5) (89, 2) (90, 0) (91, 4) (92, 35) (93, 3) (94, 10) (95, 16) (96, -14) (97, -4) (98, 24) (99, 5) (100, 12) (101, 9) (102, 15) (103, -3) (104, 8) (105, 8) (106, 12) (107, 143) 
